<?xml version="1.0"?>
<opencv_storage>
<stage2>
  <maxWeakCount>15</maxWeakCount>
  <stageThreshold>-1.2322452068328857e+00</stageThreshold>
  <weakClassifiers>
    <_>
      <internalNodes>
        0 -1 11927 -8.5327588021755219e-03</internalNodes>
      <leafValues>
        6.0414266586303711e-01 -3.3894583582878113e-01</leafValues></_>
    <_>
      <internalNodes>
        0 -1 6613 -7.3581770062446594e-02</internalNodes>
      <leafValues>
        2.4757929146289825e-01 -5.4996293783187866e-01</leafValues></_>
    <_>
      <internalNodes>
        0 -1 135336 6.6733211278915405e-02</internalNodes>
      <leafValues>
        -2.5804209709167480e-01 6.4021509885787964e-01</leafValues></_>
    <_>
      <internalNodes>
        0 -1 49271 -1.2852546758949757e-02</internalNodes>
      <leafValues>
        6.9348806142807007e-01 -1.5357345342636108e-01</leafValues></_>
    <_>
      <internalNodes>
        0 -1 25222 -9.2122834175825119e-03</internalNodes>
      <leafValues>
        5.9935098886489868e-01 -1.8211781978607178e-01</leafValues></_>
    <_>
      <internalNodes>
        0 -1 148299 -3.1256413785740733e-04</internalNodes>
      <leafValues>
        -5.8614963293075562e-01 1.9300058484077454e-01</leafValues></_>
    <_>
      <internalNodes>
        0 -1 153824 -7.8698769211769104e-03</internalNodes>
      <leafValues>
        4.6305024623870850e-01 -2.1582961082458496e-01</leafValues></_>
    <_>
      <internalNodes>
        0 -1 98643 -1.5209151897579432e-03</internalNodes>
      <leafValues>
        -8.0481958389282227e-01 1.2662909924983978e-01</leafValues></_>
    <_>
      <internalNodes>
        0 -1 12547 -1.1564141605049372e-03</internalNodes>
      <leafValues>
        5.0547033548355103e-01 -1.7539671063423157e-01</leafValues></_>
    <_>
      <internalNodes>
        0 -1 98641 5.0650921184569597e-04</internalNodes>
      <leafValues>
        1.3458213210105896e-01 -6.2766581773757935e-01</leafValues></_>
    <_>
      <internalNodes>
        0 -1 128021 1.1573242954909801e-03</internalNodes>
      <leafValues>
        -3.0271536111831665e-01 2.9645735025405884e-01</leafValues></_>
    <_>
      <internalNodes>
        0 -1 37613 -1.6662605106830597e-02</internalNodes>
      <leafValues>
        6.5425109863281250e-01 -1.3749364018440247e-01</leafValues></_>
    <_>
      <internalNodes>
        0 -1 69297 -1.2626906391233206e-03</internalNodes>
      <leafValues>
        -4.8214370012283325e-01 1.8478842079639435e-01</leafValues></_>
    <_>
      <internalNodes>
        0 -1 136746 3.1723223626613617e-02</internalNodes>
      <leafValues>
        9.1022916138172150e-02 -8.6976957321166992e-01</leafValues></_>
    <_>
      <internalNodes>
        0 -1 160580 -2.3075244389474392e-03</internalNodes>
      <leafValues>
        4.5207947492599487e-01 -2.0798936486244202e-01</leafValues></_></weakClassifiers></stage2>
</opencv_storage>
