<?xml version="1.0"?>
<opencv_storage>
<stage7>
  <maxWeakCount>34</maxWeakCount>
  <stageThreshold>-1.3310940265655518e+00</stageThreshold>
  <weakClassifiers>
    <_>
      <internalNodes>
        0 -1 4300 -1.4526540413498878e-02</internalNodes>
      <leafValues>
        3.1940817832946777e-01 -3.1321370601654053e-01</leafValues></_>
    <_>
      <internalNodes>
        0 -1 71407 -2.6801887899637222e-02</internalNodes>
      <leafValues>
        3.5516068339347839e-01 -1.6686828434467316e-01</leafValues></_>
    <_>
      <internalNodes>
        0 -1 80723 -1.6856970614753664e-04</internalNodes>
      <leafValues>
        1.4187338948249817e-01 -4.1749310493469238e-01</leafValues></_>
    <_>
      <internalNodes>
        0 -1 13005 -6.9933244958519936e-05</internalNodes>
      <leafValues>
        1.9259449839591980e-01 -3.0663859844207764e-01</leafValues></_>
    <_>
      <internalNodes>
        0 -1 37967 3.7795770913362503e-04</internalNodes>
      <leafValues>
        1.4636580646038055e-01 -4.1581356525421143e-01</leafValues></_>
    <_>
      <internalNodes>
        0 -1 105907 -6.4415170345455408e-04</internalNodes>
      <leafValues>
        -4.5632800459861755e-01 1.4203715324401855e-01</leafValues></_>
    <_>
      <internalNodes>
        0 -1 161221 6.7190229892730713e-03</internalNodes>
      <leafValues>
        -1.2241012603044510e-01 4.6314409375190735e-01</leafValues></_>
    <_>
      <internalNodes>
        0 -1 112720 -9.0037239715456963e-04</internalNodes>
      <leafValues>
        1.0685017704963684e-01 -4.0110793709754944e-01</leafValues></_>
    <_>
      <internalNodes>
        0 -1 36032 8.3195175975561142e-03</internalNodes>
      <leafValues>
        -1.6767488420009613e-01 3.1204864382743835e-01</leafValues></_>
    <_>
      <internalNodes>
        0 -1 158101 -9.1239548055455089e-04</internalNodes>
      <leafValues>
        4.5464739203453064e-01 -9.9224708974361420e-02</leafValues></_>
    <_>
      <internalNodes>
        0 -1 91873 1.1775025166571140e-02</internalNodes>
      <leafValues>
        1.3758410513401031e-01 -4.0200787782669067e-01</leafValues></_>
    <_>
      <internalNodes>
        0 -1 25222 9.5650712028145790e-03</internalNodes>
      <leafValues>
        -1.2395992130041122e-01 4.6859511733055115e-01</leafValues></_>
    <_>
      <internalNodes>
        0 -1 141326 -9.2690341174602509e-02</internalNodes>
      <leafValues>
        2.1312129497528076e-01 -2.7284365892410278e-01</leafValues></_>
    <_>
      <internalNodes>
        0 -1 46049 -5.5954009294509888e-03</internalNodes>
      <leafValues>
        3.7944662570953369e-01 -1.4094835519790649e-01</leafValues></_>
    <_>
      <internalNodes>
        0 -1 10831 -3.0809633433818817e-02</internalNodes>
      <leafValues>
        2.7882623672485352e-01 -2.0125892758369446e-01</leafValues></_>
    <_>
      <internalNodes>
        0 -1 48877 -2.3603653535246849e-03</internalNodes>
      <leafValues>
        2.6203259825706482e-01 -2.0104366540908813e-01</leafValues></_>
    <_>
      <internalNodes>
        0 -1 106748 -6.7594822030514479e-04</internalNodes>
      <leafValues>
        -5.6843334436416626e-01 9.2868156731128693e-02</leafValues></_>
    <_>
      <internalNodes>
        0 -1 89987 -3.8489100988954306e-03</internalNodes>
      <leafValues>
        4.5515340566635132e-01 -1.1425096541643143e-01</leafValues></_>
    <_>
      <internalNodes>
        0 -1 162300 -4.7776577994227409e-03</internalNodes>
      <leafValues>
        -4.7477519512176514e-01 1.0092477500438690e-01</leafValues></_>
    <_>
      <internalNodes>
        0 -1 158101 1.1084931902587414e-03</internalNodes>
      <leafValues>
        -1.0170651227235794e-01 4.7212639451026917e-01</leafValues></_>
    <_>
      <internalNodes>
        0 -1 80745 1.2274773325771093e-04</internalNodes>
      <leafValues>
        1.0885884612798691e-01 -4.7985997796058655e-01</leafValues></_>
    <_>
      <internalNodes>
        0 -1 79837 -4.8318207263946533e-03</internalNodes>
      <leafValues>
        3.5936221480369568e-01 -1.5288241207599640e-01</leafValues></_>
    <_>
      <internalNodes>
        0 -1 12221 3.9014732465147972e-03</internalNodes>
      <leafValues>
        -1.4250022172927856e-01 3.3280676603317261e-01</leafValues></_>
    <_>
      <internalNodes>
        0 -1 1288 -4.1597828269004822e-02</internalNodes>
      <leafValues>
        6.4980775117874146e-01 -6.2213346362113953e-02</leafValues></_>
    <_>
      <internalNodes>
        0 -1 1358 2.3057378828525543e-02</internalNodes>
      <leafValues>
        -1.2486009299755096e-01 4.1671970486640930e-01</leafValues></_>
    <_>
      <internalNodes>
        0 -1 51813 7.9775918275117874e-03</internalNodes>
      <leafValues>
        -2.0487539470195770e-01 2.2752249240875244e-01</leafValues></_>
    <_>
      <internalNodes>
        0 -1 26478 1.0659681633114815e-02</internalNodes>
      <leafValues>
        -1.0075942426919937e-01 4.8582372069358826e-01</leafValues></_>
    <_>
      <internalNodes>
        0 -1 89773 2.1490089129656553e-03</internalNodes>
      <leafValues>
        -1.4941914379596710e-01 3.2491478323936462e-01</leafValues></_>
    <_>
      <internalNodes>
        0 -1 89816 6.3965050503611565e-04</internalNodes>
      <leafValues>
        1.1420869082212448e-01 -4.7093340754508972e-01</leafValues></_>
    <_>
      <internalNodes>
        0 -1 80455 -3.1612455844879150e-02</internalNodes>
      <leafValues>
        7.1950614452362061e-01 -7.9584032297134399e-02</leafValues></_>
    <_>
      <internalNodes>
        0 -1 71523 -5.5454440414905548e-02</internalNodes>
      <leafValues>
        1.2527303397655487e-01 -4.4770622253417969e-01</leafValues></_>
    <_>
      <internalNodes>
        0 -1 88229 -5.1650765817612410e-04</internalNodes>
      <leafValues>
        -7.4447709321975708e-01 4.9219164997339249e-02</leafValues></_>
    <_>
      <internalNodes>
        0 -1 162097 -1.0261740681016818e-04</internalNodes>
      <leafValues>
        -4.7100260853767395e-01 8.0837145447731018e-02</leafValues></_>
    <_>
      <internalNodes>
        0 -1 152738 -3.1325272284448147e-03</internalNodes>
      <leafValues>
        4.5000588893890381e-01 -9.8114475607872009e-02</leafValues></_></weakClassifiers></stage7>
</opencv_storage>
