<?xml version="1.0"?>
<opencv_storage>
<stage1>
  <maxWeakCount>11</maxWeakCount>
  <stageThreshold>-1.3344115018844604e+00</stageThreshold>
  <weakClassifiers>
    <_>
      <internalNodes>
        0 -1 148815 7.2507103905081749e-03</internalNodes>
      <leafValues>
        1.4048963785171509e-01 -8.1818181276321411e-01</leafValues></_>
    <_>
      <internalNodes>
        0 -1 155223 1.4173256931826472e-04</internalNodes>
      <leafValues>
        -5.9139686822891235e-01 2.5337308645248413e-01</leafValues></_>
    <_>
      <internalNodes>
        0 -1 10593 -3.2995925284922123e-03</internalNodes>
      <leafValues>
        5.9838885068893433e-01 -2.1325857937335968e-01</leafValues></_>
    <_>
      <internalNodes>
        0 -1 24396 -3.7314318120479584e-02</internalNodes>
      <leafValues>
        3.6081480979919434e-01 -3.5623022913932800e-01</leafValues></_>
    <_>
      <internalNodes>
        0 -1 81218 -6.4651304855942726e-03</internalNodes>
      <leafValues>
        6.9413375854492188e-01 -1.8215507268905640e-01</leafValues></_>
    <_>
      <internalNodes>
        0 -1 114655 5.7723969221115112e-03</internalNodes>
      <leafValues>
        -1.5086787939071655e-01 7.9071831703186035e-01</leafValues></_>
    <_>
      <internalNodes>
        0 -1 37892 -1.4625510200858116e-02</internalNodes>
      <leafValues>
        6.6519230604171753e-01 -1.3422757387161255e-01</leafValues></_>
    <_>
      <internalNodes>
        0 -1 70396 -7.8256716951727867e-03</internalNodes>
      <leafValues>
        6.0120958089828491e-01 -2.0433005690574646e-01</leafValues></_>
    <_>
      <internalNodes>
        0 -1 139230 -5.5386160966008902e-04</internalNodes>
      <leafValues>
        -7.7967149019241333e-01 2.0837563276290894e-01</leafValues></_>
    <_>
      <internalNodes>
        0 -1 89197 -7.6229339465498924e-03</internalNodes>
      <leafValues>
        6.1195290088653564e-01 -2.4383072555065155e-01</leafValues></_>
    <_>
      <internalNodes>
        0 -1 3637 -2.5790199637413025e-02</internalNodes>
      <leafValues>
        3.9302021265029907e-01 -2.8884932398796082e-01</leafValues></_></weakClassifiers></stage1>
</opencv_storage>
