<?xml version="1.0"?>
<opencv_storage>
<stage16>
  <maxWeakCount>49</maxWeakCount>
  <stageThreshold>-1.2244437932968140e+00</stageThreshold>
  <weakClassifiers>
    <_>
      <internalNodes>
        0 -1 155613 9.7820116207003593e-04</internalNodes>
      <leafValues>
        -1.8669594824314117e-01 4.6859902143478394e-01</leafValues></_>
    <_>
      <internalNodes>
        0 -1 26257 2.3866992443799973e-02</internalNodes>
      <leafValues>
        7.7275469899177551e-02 -5.5426192283630371e-01</leafValues></_>
    <_>
      <internalNodes>
        0 -1 36317 -2.1487060002982616e-03</internalNodes>
      <leafValues>
        1.8658135831356049e-01 -2.8251290321350098e-01</leafValues></_>
    <_>
      <internalNodes>
        0 -1 13146 -2.7309036813676357e-03</internalNodes>
      <leafValues>
        2.1747949719429016e-01 -2.2693455219268799e-01</leafValues></_>
    <_>
      <internalNodes>
        0 -1 2699 -1.3306204974651337e-01</internalNodes>
      <leafValues>
        3.1080925464630127e-01 -1.2171372771263123e-01</leafValues></_>
    <_>
      <internalNodes>
        0 -1 20628 6.9561049342155457e-02</internalNodes>
      <leafValues>
        -1.4315241575241089e-01 3.5908302664756775e-01</leafValues></_>
    <_>
      <internalNodes>
        0 -1 97682 -6.2236411031335592e-04</internalNodes>
      <leafValues>
        -4.0066754817962646e-01 1.1739369481801987e-01</leafValues></_>
    <_>
      <internalNodes>
        0 -1 80352 -2.8747105970978737e-03</internalNodes>
      <leafValues>
        4.1107085347175598e-01 -1.1146005243062973e-01</leafValues></_>
    <_>
      <internalNodes>
        0 -1 70663 4.1820647311396897e-04</internalNodes>
      <leafValues>
        9.9412061274051666e-02 -3.5655617713928223e-01</leafValues></_>
    <_>
      <internalNodes>
        0 -1 98254 -6.4464718103408813e-02</internalNodes>
      <leafValues>
        -8.2100909948348999e-01 5.1315568387508392e-02</leafValues></_>
    <_>
      <internalNodes>
        0 -1 161529 8.4694084944203496e-04</internalNodes>
      <leafValues>
        -8.8622257113456726e-02 4.8688617348670959e-01</leafValues></_>
    <_>
      <internalNodes>
        0 -1 161529 -7.6921680010855198e-04</internalNodes>
      <leafValues>
        4.8237344622612000e-01 -7.9754278063774109e-02</leafValues></_>
    <_>
      <internalNodes>
        0 -1 155229 -2.4166199727915227e-04</internalNodes>
      <leafValues>
        -5.1592880487442017e-01 6.8580381572246552e-02</leafValues></_>
    <_>
      <internalNodes>
        0 -1 97682 4.4740905286744237e-04</internalNodes>
      <leafValues>
        9.8055869340896606e-02 -3.9744123816490173e-01</leafValues></_>
    <_>
      <internalNodes>
        0 -1 20272 -1.6197043005377054e-03</internalNodes>
      <leafValues>
        3.8211247324943542e-01 -9.3639358878135681e-02</leafValues></_>
    <_>
      <internalNodes>
        0 -1 144030 2.9472721507772803e-04</internalNodes>
      <leafValues>
        5.5701486766338348e-02 -5.8313262462615967e-01</leafValues></_>
    <_>
      <internalNodes>
        0 -1 48696 -3.0541606247425079e-03</internalNodes>
      <leafValues>
        2.1802440285682678e-01 -1.6284559667110443e-01</leafValues></_>
    <_>
      <internalNodes>
        0 -1 12504 1.4897372573614120e-02</internalNodes>
      <leafValues>
        -9.8670952022075653e-02 4.7310495376586914e-01</leafValues></_>
    <_>
      <internalNodes>
        0 -1 11613 -5.0108112394809723e-02</internalNodes>
      <leafValues>
        -4.6722328662872314e-01 7.7822543680667877e-02</leafValues></_>
    <_>
      <internalNodes>
        0 -1 159661 1.1911232722923160e-03</internalNodes>
      <leafValues>
        -2.0004233717918396e-01 1.8602848052978516e-01</leafValues></_>
    <_>
      <internalNodes>
        0 -1 89473 -2.3740460164844990e-03</internalNodes>
      <leafValues>
        -4.3151944875717163e-01 8.3303749561309814e-02</leafValues></_>
    <_>
      <internalNodes>
        0 -1 3225 2.2816661745309830e-02</internalNodes>
      <leafValues>
        -6.1182197183370590e-02 7.1960788965225220e-01</leafValues></_>
    <_>
      <internalNodes>
        0 -1 70063 -1.8843563157133758e-04</internalNodes>
      <leafValues>
        2.7012377977371216e-01 -1.2955260276794434e-01</leafValues></_>
    <_>
      <internalNodes>
        0 -1 80690 -2.8394063701853156e-04</internalNodes>
      <leafValues>
        -4.8243615031242371e-01 6.5782912075519562e-02</leafValues></_>
    <_>
      <internalNodes>
        0 -1 4175 -2.6708852499723434e-02</internalNodes>
      <leafValues>
        6.8784505128860474e-01 -6.2728777527809143e-02</leafValues></_>
    <_>
      <internalNodes>
        0 -1 107975 -3.1718206591904163e-03</internalNodes>
      <leafValues>
        2.4183060228824615e-01 -1.4278522133827209e-01</leafValues></_>
    <_>
      <internalNodes>
        0 -1 7417 1.3290962669998407e-03</internalNodes>
      <leafValues>
        -8.3494529128074646e-02 4.3904945254325867e-01</leafValues></_>
    <_>
      <internalNodes>
        0 -1 161330 -2.3990499903447926e-04</internalNodes>
      <leafValues>
        2.8940472006797791e-01 -1.2071605771780014e-01</leafValues></_>
    <_>
      <internalNodes>
        0 -1 73135 2.5960160419344902e-03</internalNodes>
      <leafValues>
        6.6019974648952484e-02 -5.4437613487243652e-01</leafValues></_>
    <_>
      <internalNodes>
        0 -1 118898 -1.7239481210708618e-02</internalNodes>
      <leafValues>
        1.3966044783592224e-01 -2.2929793596267700e-01</leafValues></_>
    <_>
      <internalNodes>
        0 -1 159503 2.6501092361286283e-04</internalNodes>
      <leafValues>
        1.6078212857246399e-01 -2.5076663494110107e-01</leafValues></_>
    <_>
      <internalNodes>
        0 -1 155154 3.7557305768132210e-04</internalNodes>
      <leafValues>
        -1.3872569799423218e-01 2.7193179726600647e-01</leafValues></_>
    <_>
      <internalNodes>
        0 -1 138562 -1.2441284488886595e-03</internalNodes>
      <leafValues>
        2.9120203852653503e-01 -1.3685467839241028e-01</leafValues></_>
    <_>
      <internalNodes>
        0 -1 34917 -9.9299084395170212e-03</internalNodes>
      <leafValues>
        -6.6938400268554688e-01 5.4916270077228546e-02</leafValues></_>
    <_>
      <internalNodes>
        0 -1 37975 -3.1231425236910582e-04</internalNodes>
      <leafValues>
        1.0018166899681091e-01 -3.3064696192741394e-01</leafValues></_>
    <_>
      <internalNodes>
        0 -1 98593 -5.5768527090549469e-04</internalNodes>
      <leafValues>
        -6.2869375944137573e-01 5.6444562971591949e-02</leafValues></_>
    <_>
      <internalNodes>
        0 -1 161103 -4.1418045293539762e-04</internalNodes>
      <leafValues>
        2.2150132060050964e-01 -1.4340333640575409e-01</leafValues></_>
    <_>
      <internalNodes>
        0 -1 5445 -1.9559890031814575e-01</internalNodes>
      <leafValues>
        -6.3645952939987183e-01 4.6464879065752029e-02</leafValues></_>
    <_>
      <internalNodes>
        0 -1 6209 -1.7338454723358154e-02</internalNodes>
      <leafValues>
        1.9935172796249390e-01 -2.0536598563194275e-01</leafValues></_>
    <_>
      <internalNodes>
        0 -1 53711 1.5703324228525162e-02</internalNodes>
      <leafValues>
        6.3514128327369690e-02 -5.6022709608078003e-01</leafValues></_>
    <_>
      <internalNodes>
        0 -1 11194 1.0431136935949326e-02</internalNodes>
      <leafValues>
        -1.2532685697078705e-01 3.1614282727241516e-01</leafValues></_>
    <_>
      <internalNodes>
        0 -1 58516 7.8177452087402344e-04</internalNodes>
      <leafValues>
        8.9793533086776733e-02 -4.3570590019226074e-01</leafValues></_>
    <_>
      <internalNodes>
        0 -1 80290 -8.9614856988191605e-03</internalNodes>
      <leafValues>
        2.9751735925674438e-01 -1.2194859236478806e-01</leafValues></_>
    <_>
      <internalNodes>
        0 -1 12732 4.5968871563673019e-03</internalNodes>
      <leafValues>
        -1.1469103395938873e-01 3.5014948248863220e-01</leafValues></_>
    <_>
      <internalNodes>
        0 -1 7114 -6.0379676520824432e-02</internalNodes>
      <leafValues>
        -5.1742476224899292e-01 6.7837931215763092e-02</leafValues></_>
    <_>
      <internalNodes>
        0 -1 151812 -8.3854682743549347e-03</internalNodes>
      <leafValues>
        6.3070195913314819e-01 -6.3564047217369080e-02</leafValues></_>
    <_>
      <internalNodes>
        0 -1 89046 4.3182185618206859e-04</internalNodes>
      <leafValues>
        1.0207463055849075e-01 -3.7831556797027588e-01</leafValues></_>
    <_>
      <internalNodes>
        0 -1 59020 6.8225637078285217e-03</internalNodes>
      <leafValues>
        -1.4922577142715454e-01 2.5665825605392456e-01</leafValues></_>
    <_>
      <internalNodes>
        0 -1 133522 -3.8002734072506428e-04</internalNodes>
      <leafValues>
        -3.0473676323890686e-01 1.2556928396224976e-01</leafValues></_></weakClassifiers></stage16>
</opencv_storage>
